# Auto-generated from bioavailability LightGBM model
# Feature dimension: 2077

import math
def sigmoid(x):
    if x < 0.0:
        z = math.exp(x)
        return z / (1.0 + z)
    return 1.0 / (1.0 + math.exp(-x))
def score(input):
    if input[4] > 113.07999801635744:
        if input[4] > 204.54499816894534:
            var0 = 1.0601446549895255
        else:
            if input[20] <= -0.4922634214162826:
                var0 = 1.2808616112662798
            else:
                var0 = 1.165816093515848
    else:
        if input[10] > 2.5000000000000004:
            if input[27] > 2.3671426773071294:
                var0 = 1.0887782060740774
            else:
                var0 = 1.2185836376573795
        else:
            if input[19] > 0.4102927148342133:
                var0 = 1.1555898252713652
            else:
                var0 = 1.2627347261038822
    if input[4] > 113.07999801635744:
        if input[169] > 0.000000000000000000000000000000000010000000180025095:
            var1 = 0.021096127352217928
        else:
            if input[0] > 522.643524169922:
                var1 = -0.1568310116499451
            else:
                var1 = -0.05053024172636962
    else:
        if input[10] > 2.5000000000000004:
            if input[27] > 2.3671426773071294:
                var1 = -0.12776852603520603
            else:
                var1 = -0.014710161887433092
        else:
            if input[19] > 0.4102927148342133:
                var1 = -0.07152560679495476
            else:
                var1 = 0.027547154975146915
    if input[18] > 129.00000000000003:
        if input[20] <= -0.47749693691730494:
            if input[2] > 3.5000000000000004:
                var2 = -0.0721033728750771
            else:
                var2 = 0.0281015038615634
        else:
            if input[18] > 141.00000000000003:
                var2 = -0.03588138210656235
            else:
                var2 = -0.15354344716173318
    else:
        if input[19] > 0.3476557135581971:
            if input[17] > 5.500000000000001:
                var2 = -0.028538856714318342
            else:
                var2 = -0.12762694364089686
        else:
            if input[1191] > 0.000000000000000000000000000000000010000000180025095:
                var2 = -0.030767914984761766
            else:
                var2 = 0.03952009794198761
    if input[18] > 129.00000000000003:
        if input[1192] > 0.000000000000000000000000000000000010000000180025095:
            if input[27] > 6.041644334793092:
                var3 = -0.01755342561826783
            else:
                var3 = 0.06462917082142548
        else:
            if input[16] > 6.500000000000001:
                var3 = -0.17497589018961163
            else:
                var3 = -0.030822592348710865
    else:
        if input[19] > 0.3476557135581971:
            if input[6] > 0.3699248135089875:
                var3 = -0.1096336618796595
            else:
                var3 = -0.015702769553332285
        else:
            if input[1191] > 0.000000000000000000000000000000000010000000180025095:
                var3 = -0.028732764488935986
            else:
                var3 = 0.038417626766618404
    if input[4] > 113.07999801635744:
        if input[169] > 0.000000000000000000000000000000000010000000180025095:
            var4 = 0.0220015269989874
        else:
            if input[0] > 522.643524169922:
                var4 = -0.12483100261026517
            else:
                var4 = -0.04433315886152901
    else:
        if input[10] > 2.5000000000000004:
            if input[1057] > 0.000000000000000000000000000000000010000000180025095:
                var4 = -0.12489720299964645
            else:
                var4 = -0.018058457597983805
        else:
            if input[1511] > 0.000000000000000000000000000000000010000000180025095:
                var4 = -0.04580896321002168
            else:
                var4 = 0.027531045626722452
    if input[18] > 129.00000000000003:
        if input[20] <= -0.47749693691730494:
            if input[4] > 196.38999938964847:
                var5 = -0.10869927223291223
            else:
                var5 = 0.0180055322377369
        else:
            if input[18] > 141.00000000000003:
                var5 = -0.029497128587847893
            else:
                var5 = -0.12925430595833487
    else:
        if input[19] > 0.3476557135581971:
            if input[0] > 241.95850372314456:
                var5 = -0.09767673414990245
            else:
                var5 = -0.02793932577210778
        else:
            if input[23] <= -2.014999985694885:
                var5 = 0.0626200518456483
            else:
                var5 = 0.018980335437629843
    if input[4] > 113.07999801635744:
        if input[169] > 0.000000000000000000000000000000000010000000180025095:
            var6 = 0.02175226661007816
        else:
            if input[0] > 522.643524169922:
                var6 = -0.10888338435253984
            else:
                var6 = -0.04008271113448407
    else:
        if input[10] > 2.5000000000000004:
            if input[1057] > 0.000000000000000000000000000000000010000000180025095:
                var6 = -0.11036243642950948
            else:
                var6 = -0.016655611200432588
        else:
            if input[407] > 0.000000000000000000000000000000000010000000180025095:
                var6 = 0.04695267751717309
            else:
                var6 = 0.006239477866595028
    if input[4] > 113.07999801635744:
        if input[169] > 0.000000000000000000000000000000000010000000180025095:
            var7 = 0.020909388880411387
        else:
            if input[5] > 5.500000000000001:
                var7 = -0.02470043949248235
            else:
                var7 = -0.08277861597096839
    else:
        if input[10] > 2.5000000000000004:
            if input[27] > 2.3671426773071294:
                var7 = -0.09619564017544495
            else:
                var7 = -0.006835174356628834
        else:
            if input[1511] > 0.000000000000000000000000000000000010000000180025095:
                var7 = -0.041969934009030915
            else:
                var7 = 0.02551022838791088
    if input[18] > 129.00000000000003:
        if input[25] > 17.243688583374027:
            if input[2] > 6.500000000000001:
                var8 = -0.11925721429042163
            else:
                var8 = -0.008023441686522767
        else:
            var8 = -0.10368111788694001
    else:
        if input[19] <= 0.3476557135581971:
            if input[1631] > 0.000000000000000000000000000000000010000000180025095:
                var8 = -0.032096489532542447
            else:
                var8 = 0.03475611219288844
        else:
            if input[6] > 0.3699248135089875:
                var8 = -0.09298987310439395
            else:
                var8 = -0.014114192440897398
    if input[18] > 129.00000000000003:
        if input[20] <= -0.47749693691730494:
            if input[16] > 3.5000000000000004:
                var9 = -0.04534126517379964
            else:
                var9 = 0.02927921295032467
        else:
            if input[28] > 163.6771392822266:
                var9 = -0.021908928008367586
            else:
                var9 = -0.10375159856673358
    else:
        if input[19] > 0.3476557135581971:
            if input[17] > 5.500000000000001:
                var9 = -0.013975986269934102
            else:
                var9 = -0.10221674168366171
        else:
            if input[23] <= -2.014999985694885:
                var9 = 0.06109430456587986
            else:
                var9 = 0.0166109870555383
    if input[18] > 129.00000000000003:
        if input[1192] > 0.000000000000000000000000000000000010000000180025095:
            if input[5] > 8.500000000000002:
                var10 = -0.011695289187194894
            else:
                var10 = 0.06423559036661558
        else:
            if input[20] <= -0.47749693691730494:
                var10 = 0.0003067567325745968
            else:
                var10 = -0.05553929679097003
    else:
        if input[19] <= 0.3476557135581971:
            if input[23] <= -2.014999985694885:
                var10 = 0.060439221854434566
            else:
                var10 = 0.01594240192832305
        else:
            if input[6] > 0.3699248135089875:
                var10 = -0.0803275993434578
            else:
                var10 = -0.010508297509395702
    if input[25] > 25.688558578491214:
        if input[19] > 0.30740183591842657:
            var11 = 0.006114431174822431
        else:
            if input[26] > 11.55944061279297:
                var11 = -0.07099553439609319
            else:
                var11 = -0.13292329888836107
    else:
        if input[682] > 0.000000000000000000000000000000000010000000180025095:
            if input[4] > 68.99499893188478:
                var11 = -0.11077955506653331
            else:
                var11 = -0.006626054148063474
        else:
            if input[19] > 0.3521585017442704:
                var11 = -0.04701946526419176
            else:
                var11 = 0.01902449673469682
    if input[4] > 117.65999984741212:
        if input[169] > 0.000000000000000000000000000000000010000000180025095:
            var12 = 0.021411390595875348
        else:
            if input[5] > 5.500000000000001:
                var12 = -0.015770806831354046
            else:
                var12 = -0.08175661715018821
    else:
        if input[10] > 2.5000000000000004:
            if input[12] > 0.000000000000000000000000000000000010000000180025095:
                var12 = -0.06527727400083368
            else:
                var12 = 0.014249754018823647
        else:
            if input[145] > 0.000000000000000000000000000000000010000000180025095:
                var12 = -0.07287213739024877
            else:
                var12 = 0.021798257862608906
    if input[18] > 129.00000000000003:
        if input[407] > 0.000000000000000000000000000000000010000000180025095:
            if input[469] > 0.000000000000000000000000000000000010000000180025095:
                var13 = -0.08422691041364737
            else:
                var13 = 0.03717327295242252
        else:
            if input[23] <= -3.2599999904632564:
                var13 = -0.1065937690940378
            else:
                var13 = -0.02026658251473768
    else:
        if input[19] > 0.3476557135581971:
            if input[17] > 5.500000000000001:
                var13 = -0.007279423304593633
            else:
                var13 = -0.08622414249670035
        else:
            if input[20] <= -0.5073740482330321:
                var13 = -0.06375730913690307
            else:
                var13 = 0.029721854148477275
    if input[25] > 25.46761798858643:
        if input[19] > 0.30740183591842657:
            if input[25] > 29.951882362365726:
                var14 = 0.04969305274559767
            else:
                var14 = -0.026365106278151307
        else:
            if input[26] > 11.55944061279297:
                var14 = -0.0636518906705033
            else:
                var14 = -0.12071574805378829
    else:
        if input[19] > 0.3476557135581971:
            if input[1086] > 0.000000000000000000000000000000000010000000180025095:
                var14 = -0.06219542643585421
            else:
                var14 = 0.030446389494815436
        else:
            if input[1196] > 0.000000000000000000000000000000000010000000180025095:
                var14 = -0.06146164596329336
            else:
                var14 = 0.018700185072918832
    if input[2] > 6.500000000000001:
        var15 = -0.09677680733521421
    else:
        if input[682] > 0.000000000000000000000000000000000010000000180025095:
            if input[23] <= -2.650000095367431:
                var15 = -0.0016751857801322629
            else:
                var15 = -0.08230984799653566
        else:
            if input[2013] > 0.000000000000000000000000000000000010000000180025095:
                var15 = -0.08176831133650442
            else:
                var15 = 0.011091424622646376
    if input[18] > 129.00000000000003:
        if input[0] > 361.15950012207037:
            if input[21] > 2.601608037948609:
                var16 = -0.09810952205428085
            else:
                var16 = -0.00022755712446660944
        else:
            if input[20] <= -0.49081879854202265:
                var16 = 0.00438279909441867
            else:
                var16 = -0.09630049751825877
    else:
        if input[774] > 0.000000000000000000000000000000000010000000180025095:
            var16 = -0.09211272819673186
        else:
            if input[28] > 102.62769699096681:
                var16 = 0.03384884832988629
            else:
                var16 = -0.002380738123442925
    if input[4] > 117.65999984741212:
        if input[1] <= -1.9059000015258787:
            var17 = -0.10192389453708808
        else:
            if input[169] > 0.000000000000000000000000000000000010000000180025095:
                var17 = 0.04626514261409444
            else:
                var17 = -0.03566873661448643
    else:
        if input[407] > 0.000000000000000000000000000000000010000000180025095:
            if input[1511] > 0.000000000000000000000000000000000010000000180025095:
                var17 = -0.033248131446535704
            else:
                var17 = 0.043535542892615964
        else:
            if input[774] > 0.000000000000000000000000000000000010000000180025095:
                var17 = -0.08375998312042388
            else:
                var17 = 0.0014697183779316997
    if input[25] > 24.545046806335453:
        if input[27] > 6.041644334793092:
            if input[21] > 1.81736296415329:
                var18 = -0.05010575167144463
            else:
                var18 = 0.04055998560516671
        else:
            var18 = -0.08226072201301987
    else:
        if input[1196] > 0.000000000000000000000000000000000010000000180025095:
            var18 = -0.05270191721111194
        else:
            if input[23] <= -2.0799999237060542:
                var18 = 0.02772771744547838
            else:
                var18 = -0.0026415016812692945
    if input[19] <= 0.3476557135581971:
        if input[18] > 131.00000000000003:
            if input[1192] > 0.000000000000000000000000000000000010000000180025095:
                var19 = 0.04350159525943106
            else:
                var19 = -0.02295704480420053
        else:
            if input[23] <= -2.014999985694885:
                var19 = 0.05881985520658533
            else:
                var19 = 0.011086208724668808
    else:
        if input[2] > 0.000000000000000000000000000000000010000000180025095:
            if input[1779] > 0.000000000000000000000000000000000010000000180025095:
                var19 = 0.02372932402616863
            else:
                var19 = -0.05072393736501142
        else:
            var19 = -0.1286446852722344
    if input[4] > 118.52500152587892:
        if input[1143] > 0.000000000000000000000000000000000010000000180025095:
            var20 = -0.10591022756655921
        else:
            if input[1303] > 0.000000000000000000000000000000000010000000180025095:
                var20 = 0.047546655745155875
            else:
                var20 = -0.026955664082062927
    else:
        if input[260] > 0.000000000000000000000000000000000010000000180025095:
            if input[1] > 2.8014000654220585:
                var20 = -0.08938019479759748
            else:
                var20 = -0.012557927022764055
        else:
            if input[9] > 2.5000000000000004:
                var20 = -0.04775471571089091
            else:
                var20 = 0.018826573032238798
    if input[19] <= 0.3476557135581971:
        if input[18] > 131.00000000000003:
            if input[19] > 0.3191882967948914:
                var21 = 0.024491199750683312
            else:
                var21 = -0.02691359438929188
        else:
            if input[774] > 0.000000000000000000000000000000000010000000180025095:
                var21 = -0.06271147460328196
            else:
                var21 = 0.026989745959786315
    else:
        if input[2] > 0.000000000000000000000000000000000010000000180025095:
            if input[1779] > 0.000000000000000000000000000000000010000000180025095:
                var21 = 0.022421586235380996
            else:
                var21 = -0.0466494225573344
        else:
            var21 = -0.119530706793682
    if input[10] > 2.5000000000000004:
        if input[21] > 1.9502129554748537:
            var22 = 0.06271555775250219
        else:
            if input[1057] > 0.000000000000000000000000000000000010000000180025095:
                var22 = -0.08007652477123202
            else:
                var22 = -0.022968060114965872
    else:
        if input[4] > 118.52500152587892:
            if input[21] > 2.0027858018875127:
                var22 = -0.06517731976076184
            else:
                var22 = 0.007687930414944368
        else:
            if input[20] > -0.49676798284053797:
                var22 = 0.021456447022448675
            else:
                var22 = -0.049848770120763775
    if input[2] > 6.500000000000001:
        var23 = -0.08131085921836329
    else:
        if input[19] <= 0.3476557135581971:
            if input[21] > 1.7165876626968386:
                var23 = 0.019099474451116205
            else:
                var23 = -0.014180187596756108
        else:
            if input[2] > 0.000000000000000000000000000000000010000000180025095:
                var23 = -0.008852854189001854
            else:
                var23 = -0.11127390272571464
    if input[4] > 204.54499816894534:
        var24 = -0.06784883255372191
    else:
        if input[2013] > 0.000000000000000000000000000000000010000000180025095:
            var24 = -0.06750770093951175
        else:
            if input[19] <= 0.3476557135581971:
                var24 = 0.011106537820206278
            else:
                var24 = -0.02633544547627958
    if input[25] > 25.46761798858643:
        if input[26] > 11.419600486755373:
            if input[19] > 0.30740183591842657:
                var25 = 0.0539431822642286
            else:
                var25 = -0.04679162431991196
        else:
            var25 = -0.08759314393628527
    else:
        if input[682] > 0.000000000000000000000000000000000010000000180025095:
            if input[4] > 68.99499893188478:
                var25 = -0.08188555944897294
            else:
                var25 = 0.015518590460252125
        else:
            if input[19] > 0.3521585017442704:
                var25 = -0.031866824228180476
            else:
                var25 = 0.014619317985804776
    if input[2] > 6.500000000000001:
        var26 = -0.07472884770252997
    else:
        if input[682] > 0.000000000000000000000000000000000010000000180025095:
            if input[0] > 446.259994506836:
                var26 = 0.005076806711558103
            else:
                var26 = -0.06748160869616276
        else:
            if input[2013] > 0.000000000000000000000000000000000010000000180025095:
                var26 = -0.06289692987855183
            else:
                var26 = 0.009303618284852556
    if input[407] > 0.000000000000000000000000000000000010000000180025095:
        if input[4] > 113.07999801635744:
            if input[26] > 7.421133041381837:
                var27 = 0.017080862090379366
            else:
                var27 = -0.06829216598586117
        else:
            if input[1820] > 0.000000000000000000000000000000000010000000180025095:
                var27 = -0.025074080183508558
            else:
                var27 = 0.04851911131954071
    else:
        if input[21] > 1.5773571729660036:
            if input[19] <= 0.3578155487775803:
                var27 = 0.005491618961537413
            else:
                var27 = -0.05094758471645255
        else:
            if input[19] > 0.3281311690807343:
                var27 = 0.030473261866847234
            else:
                var27 = -0.06353319259731063
    if input[436] > 0.000000000000000000000000000000000010000000180025095:
        if input[4] > 78.84500122070314:
            var28 = 0.06482546072899174
        else:
            var28 = 0.03707265931495221
    else:
        if input[28] > 147.9275588989258:
            if input[25] > 17.243688583374027:
                var28 = -0.010639350956947383
            else:
                var28 = -0.09849020865273579
        else:
            if input[774] > 0.000000000000000000000000000000000010000000180025095:
                var28 = -0.0632423090169622
            else:
                var28 = 0.015491697264422661
    if input[10] > 2.5000000000000004:
        if input[1057] > 0.000000000000000000000000000000000010000000180025095:
            var29 = -0.07076534724647614
        else:
            if input[678] > 0.000000000000000000000000000000000010000000180025095:
                var29 = 0.06583235114261614
            else:
                var29 = -0.02525267545805651
    else:
        if input[4] > 118.52500152587892:
            if input[1143] > 0.000000000000000000000000000000000010000000180025095:
                var29 = -0.09140441794344928
            else:
                var29 = -0.00724139271034158
        else:
            if input[1631] > 0.000000000000000000000000000000000010000000180025095:
                var29 = -0.04576640116100608
            else:
                var29 = 0.018456175381074153
    if input[436] > 0.000000000000000000000000000000000010000000180025095:
        if input[23] <= -2.4150000810623165:
            var30 = 0.06428389787439374
        else:
            var30 = 0.03502788655330216
    else:
        if input[28] > 147.9275588989258:
            if input[15] > 26.500000000000004:
                var30 = -0.005256213996695656
            else:
                var30 = -0.06287437128000947
        else:
            if input[23] <= -2.0349999666213985:
                var30 = 0.04446421229499419
            else:
                var30 = -0.0009798213902880496
    var31 = sigmoid(var0 + var1 + var2 + var3 + var4 + var5 + var6 + var7 + var8 + var9 + var10 + var11 + var12 + var13 + var14 + var15 + var16 + var17 + var18 + var19 + var20 + var21 + var22 + var23 + var24 + var25 + var26 + var27 + var28 + var29 + var30)
    return [1.0 - var31, var31]
