# Auto-generated from ppbr LightGBM model
# Feature dimension: 2077

def score(input):
    if input[1] > 2.4862699508666997:
        if input[6] > 0.39339827001094824:
            if input[22] > 661.4793701171876:
                if input[1] > 2.9483499526977544:
                    if input[4] > 44.5900001525879:
                        var0 = 87.34063088931826
                    else:
                        var0 = 86.80373018097835
                else:
                    if input[30] > 0.000000000000000000000000000000000010000000180025095:
                        var0 = 86.44558220106758
                    else:
                        var0 = 87.08234839067418
            else:
                var0 = 86.31059394422086
        else:
            if input[1] > 3.1613600254058842:
                if input[4] > 46.42000007629395:
                    if input[197] > 0.000000000000000000000000000000000010000000180025095:
                        var0 = 87.29401137644943
                    else:
                        var0 = 87.61488707171392
                else:
                    if input[1] > 4.046080112457276:
                        var0 = 87.56014243170539
                    else:
                        var0 = 87.04480271365317
            else:
                if input[1699] > 0.000000000000000000000000000000000010000000180025095:
                    var0 = 86.81136434225624
                else:
                    if input[6] > 0.14550264924764636:
                        var0 = 87.24574117325714
                    else:
                        var0 = 87.5601631922219
    else:
        if input[22] > 552.9367675781251:
            if input[6] > 0.3726851791143418:
                if input[3] > 5.500000000000001:
                    if input[831] > 0.000000000000000000000000000000000010000000180025095:
                        var0 = 86.14890945537816
                    else:
                        var0 = 86.76774562870462
                else:
                    var0 = 85.5490229530548
            else:
                if input[1957] > 0.000000000000000000000000000000000010000000180025095:
                    var0 = 86.51245343423183
                else:
                    if input[343] > 0.000000000000000000000000000000000010000000180025095:
                        var0 = 87.33430990097531
                    else:
                        var0 = 86.93826234792651
        else:
            if input[1] > 1.3016899824142458:
                var0 = 85.75655075464256
            else:
                var0 = 84.95352489889157
    if input[1] > 2.4862699508666997:
        if input[1] > 3.1613600254058842:
            if input[4] > 46.42000007629395:
                if input[1] > 3.8987100124359135:
                    if input[12] > 1.5000000000000002:
                        var1 = 0.08328925217445171
                    else:
                        var1 = 0.4597128455522895
                else:
                    if input[18] > 153.00000000000003:
                        var1 = 0.11679132061484826
                    else:
                        var1 = 0.3734928252376224
            else:
                if input[1] > 4.894000053405763:
                    var1 = 0.46343188485301345
                else:
                    if input[27] > 3.0786836147308354:
                        var1 = -0.601356140420072
                    else:
                        var1 = 0.2308169105022423
        else:
            if input[19] > 0.16530607640743258:
                if input[25] > 22.45445060729981:
                    if input[1048] > 0.000000000000000000000000000000000010000000180025095:
                        var1 = -0.10930203610219046
                    else:
                        var1 = -0.6703325476997342
                else:
                    if input[1699] > 0.000000000000000000000000000000000010000000180025095:
                        var1 = -0.28870141490862683
                    else:
                        var1 = 0.20407121527037747
            else:
                var1 = -0.852917590751467
    else:
        if input[22] > 552.9367675781251:
            if input[20] <= -0.35030253231525416:
                if input[1628] > 0.000000000000000000000000000000000010000000180025095:
                    var1 = -1.1521639638037477
                else:
                    if input[1] > 1.4478499889373782:
                        var1 = -0.1502458807628249
                    else:
                        var1 = -0.6993045927595611
            else:
                var1 = -1.123694466758771
        else:
            if input[1] > 1.3016899824142458:
                var1 = -1.327738829190143
            else:
                var1 = -2.090763668452992
    if input[1] > 2.4419499635696416:
        if input[1] > 3.1613600254058842:
            if input[4] > 46.42000007629395:
                if input[1] > 3.8987100124359135:
                    if input[12] > 1.5000000000000002:
                        var2 = 0.0791349282229904
                    else:
                        var2 = 0.43673416324291614
                else:
                    if input[1869] > 0.000000000000000000000000000000000010000000180025095:
                        var2 = -0.06815644119584989
                    else:
                        var2 = 0.28198636804593863
            else:
                if input[1] > 4.894000053405763:
                    var2 = 0.44035261161773803
                else:
                    if input[26] > 7.404914617538453:
                        var2 = -0.7882703428252591
                    else:
                        var2 = 0.11698892915088706
        else:
            if input[23] <= -1.8450000286102293:
                if input[30] > 0.000000000000000000000000000000000010000000180025095:
                    if input[21] > 1.8604700565338137:
                        var2 = 0.07772076816136547
                    else:
                        var2 = -0.47661248698344383
                else:
                    if input[1200] > 0.000000000000000000000000000000000010000000180025095:
                        var2 = -0.13572819434925723
                    else:
                        var2 = 0.267772155984137
            else:
                var2 = -0.6812080862748655
    else:
        if input[22] > 552.9367675781251:
            if input[20] <= -0.3502864390611648:
                if input[1628] > 0.000000000000000000000000000000000010000000180025095:
                    var2 = -1.0948287785900712
                else:
                    if input[1] > 1.4478499889373782:
                        var2 = -0.15518712198405282
                    else:
                        var2 = -0.6644064732796857
            else:
                var2 = -1.1785598706715221
        else:
            if input[1] > 1.2206000089645388:
                var2 = -1.3035426118184086
            else:
                var2 = -2.0137443195379787
    if input[1] > 2.4862699508666997:
        if input[6] > 0.39339827001094824:
            if input[22] > 661.4793701171876:
                if input[19] > 0.3362398445606232:
                    if input[25] > 25.02959251403809:
                        var3 = 0.28579781225200784
                    else:
                        var3 = 0.47948623964156223
                else:
                    if input[1] > 2.9483499526977544:
                        var3 = 0.0015397928909996388
                    else:
                        var3 = -0.4647436452361772
            else:
                var3 = -0.7832436022621627
        else:
            if input[1] > 3.2017999887466435:
                if input[20] <= -0.31699702143669123:
                    if input[1] > 3.8987100124359135:
                        var3 = 0.4288168919053413
                    else:
                        var3 = 0.2929285163943267
                else:
                    var3 = -0.014311197141359089
            else:
                if input[1699] > 0.000000000000000000000000000000000010000000180025095:
                    var3 = -0.30056086225972345
                else:
                    if input[5] > 2.5000000000000004:
                        var3 = 0.20965959801644588
                    else:
                        var3 = -0.2426378528128809
    else:
        if input[22] > 552.9367675781251:
            if input[6] > 0.3726851791143418:
                if input[3] > 5.500000000000001:
                    if input[831] > 0.000000000000000000000000000000000010000000180025095:
                        var3 = -0.8695236236666122
                    else:
                        var3 = -0.324729125108089
                else:
                    var3 = -1.4493250114319907
            else:
                if input[1957] > 0.000000000000000000000000000000000010000000180025095:
                    var3 = -0.5764422450570149
                else:
                    if input[343] > 0.000000000000000000000000000000000010000000180025095:
                        var3 = 0.20092107939936243
                    else:
                        var3 = -0.16594570223214697
        else:
            if input[6] > 0.3726851791143418:
                var3 = -1.912957739265044
            else:
                var3 = -1.2111365069710247
    if input[1] > 2.4419499635696416:
        if input[6] > 0.39339827001094824:
            if input[25] > 17.447407722473148:
                if input[1] > 3.967700004577637:
                    if input[1783] > 0.000000000000000000000000000000000010000000180025095:
                        var4 = -0.208361914540377
                    else:
                        var4 = 0.28906597242616383
                else:
                    if input[4] > 69.04999923706056:
                        var4 = -0.10281299834365731
                    else:
                        var4 = -0.6750583770856334
            else:
                var4 = -0.9107655459027273
        else:
            if input[1] > 3.2017999887466435:
                if input[4] > 46.42000007629395:
                    if input[197] > 0.000000000000000000000000000000000010000000180025095:
                        var4 = 0.11756039685777481
                    else:
                        var4 = 0.38431244735042697
                else:
                    if input[1] > 4.046080112457276:
                        var4 = 0.35807087858390196
                    else:
                        var4 = -0.11269673271612689
            else:
                if input[1699] > 0.000000000000000000000000000000000010000000180025095:
                    var4 = -0.26171325029037756
                else:
                    if input[1895] > 0.000000000000000000000000000000000010000000180025095:
                        var4 = -0.32134457301737657
                    else:
                        var4 = 0.21822705235439793
    else:
        if input[22] > 552.9367675781251:
            if input[6] > 0.3559907823801041:
                if input[3] > 5.500000000000001:
                    if input[831] > 0.000000000000000000000000000000000010000000180025095:
                        var4 = -0.9002388915692667
                    else:
                        var4 = -0.30179049349227943
                else:
                    var4 = -1.3021800934339982
            else:
                if input[1957] > 0.000000000000000000000000000000000010000000180025095:
                    var4 = -0.5814959523096607
                else:
                    if input[16] > 2.5000000000000004:
                        var4 = -0.20259377843723067
                    else:
                        var4 = 0.18090659670139617
        else:
            if input[1] > 1.2206000089645388:
                var4 = -1.162721796771187
            else:
                var4 = -1.8340984515289762
    if input[1] > 2.4419499635696416:
        if input[6] > 0.39339827001094824:
            if input[0] > 339.9649963378907:
                if input[1] > 3.967700004577637:
                    if input[2] > 0.000000000000000000000000000000000010000000180025095:
                        var5 = 0.25895803909499504
                    else:
                        var5 = -0.2635428169809015
                else:
                    if input[19] > 0.3362398445606232:
                        var5 = 0.18767545617004328
                    else:
                        var5 = -0.28682546693188876
            else:
                var5 = -0.83844261750084
        else:
            if input[1] > 3.7958999872207646:
                if input[23] <= -1.9350000023841856:
                    if input[1] > 4.6403000354766855:
                        var5 = 0.45463024587360423
                    else:
                        var5 = 0.3309447422960989
                else:
                    var5 = 0.05477573687757425
            else:
                if input[742] > 0.000000000000000000000000000000000010000000180025095:
                    var5 = -0.4032775136072244
                else:
                    if input[1632] > 0.000000000000000000000000000000000010000000180025095:
                        var5 = -0.2983851451132306
                    else:
                        var5 = 0.21238727329958837
    else:
        if input[23] <= -1.9350000023841856:
            if input[334] > 0.000000000000000000000000000000000010000000180025095:
                var5 = -1.1247096549896967
            else:
                if input[30] > 0.000000000000000000000000000000000010000000180025095:
                    var5 = -0.7607681948205699
                else:
                    if input[1] > 1.2640799880027773:
                        var5 = -0.03606716960977543
                    else:
                        var5 = -0.5181581808829624
        else:
            if input[7] > 2.5000000000000004:
                var5 = -0.44956923829153256
            else:
                if input[19] > 0.26306492090225225:
                    var5 = -1.0614028375673097
                else:
                    var5 = -1.9308380343902731
    if input[1] > 2.4419499635696416:
        if input[6] > 0.39339827001094824:
            if input[25] > 17.447407722473148:
                if input[19] > 0.3362398445606232:
                    if input[19] > 0.4113543331623078:
                        var6 = 0.12091619387207189
                    else:
                        var6 = 0.4072500180654716
                else:
                    if input[1] > 2.9483499526977544:
                        var6 = -0.004838832410122528
                    else:
                        var6 = -0.4502364679762253
            else:
                var6 = -0.827542476106793
        else:
            if input[1] > 3.2017999887466435:
                if input[20] <= -0.31699702143669123:
                    if input[1324] > 0.000000000000000000000000000000000010000000180025095:
                        var6 = 0.10896992525178753
                    else:
                        var6 = 0.3453475128080687
                else:
                    var6 = -0.03905982324356435
            else:
                if input[19] > 0.19134721159935:
                    if input[23] <= -2.6550000905990596:
                        var6 = -0.008615334119332553
                    else:
                        var6 = 0.2991654016407002
                else:
                    var6 = -0.3556993344746738
    else:
        if input[22] > 552.9367675781251:
            if input[6] > 0.40824915468692785:
                if input[4] > 92.56999969482423:
                    if input[19] > 0.26997619867324835:
                        var6 = -0.7220170156207195
                    else:
                        var6 = -0.1444467707868183
                else:
                    var6 = -1.2411472974029492
            else:
                if input[1] > 1.5332999825477602:
                    if input[1957] > 0.000000000000000000000000000000000010000000180025095:
                        var6 = -0.47780013713077524
                    else:
                        var6 = 0.02544151345924696
                else:
                    var6 = -0.5559718577661247
        else:
            if input[19] > 0.2641595900058747:
                var6 = -1.028268125208456
            else:
                var6 = -1.6902530712867851
    if input[22] > 670.419403076172:
        if input[6] > 0.4031250029802323:
            if input[2007] > 0.000000000000000000000000000000000010000000180025095:
                var7 = -0.738697015586777
            else:
                if input[26] > 6.730449676513673:
                    if input[17] > 9.500000000000002:
                        var7 = -0.41368341905887107
                    else:
                        var7 = 0.002307893012642797
                else:
                    var7 = -0.6295658656020663
        else:
            if input[1286] > 0.000000000000000000000000000000000010000000180025095:
                var7 = -0.4809610581511005
            else:
                if input[783] > 0.000000000000000000000000000000000010000000180025095:
                    var7 = -0.3219954751003748
                else:
                    if input[16] > 4.500000000000001:
                        var7 = -0.3426975964201437
                    else:
                        var7 = 0.2460711186392758
    else:
        if input[11] > 1.5000000000000002:
            if input[6] > 0.30602006614208227:
                var7 = -0.6349008445106338
            else:
                if input[27] > 2.150867342948914:
                    if input[23] <= -1.9650000333786009:
                        var7 = -0.06237069534272263
                    else:
                        var7 = 0.2922229148765311
                else:
                    var7 = -0.4247933096701826
        else:
            if input[19] > 0.29036192595958715:
                var7 = -0.3906490118754895
            else:
                var7 = -1.6380085066844512
    if input[22] > 670.419403076172:
        if input[6] > 0.4031250029802323:
            if input[12] > 0.000000000000000000000000000000000010000000180025095:
                if input[590] > 0.000000000000000000000000000000000010000000180025095:
                    if input[23] <= -1.8450000286102293:
                        var8 = 0.22510688976108853
                    else:
                        var8 = -0.0017846657269036592
                else:
                    if input[19] > 0.3906420916318894:
                        var8 = 0.10983668811297496
                    else:
                        var8 = -0.4306977314252338
            else:
                if input[9] > 0.000000000000000000000000000000000010000000180025095:
                    if input[19] > 0.2625563740730286:
                        var8 = 0.43756995242395447
                    else:
                        var8 = 0.18618031720414546
                else:
                    var8 = -0.17361174828458031
        else:
            if input[1286] > 0.000000000000000000000000000000000010000000180025095:
                var8 = -0.45702697575374807
            else:
                if input[783] > 0.000000000000000000000000000000000010000000180025095:
                    var8 = -0.30595737289194863
                else:
                    if input[742] > 0.000000000000000000000000000000000010000000180025095:
                        var8 = -0.25135414125020633
                    else:
                        var8 = 0.23677729245207196
    else:
        if input[11] > 1.5000000000000002:
            if input[964] > 0.000000000000000000000000000000000010000000180025095:
                var8 = -0.7034917692739175
            else:
                if input[6] > 0.2928921580314637:
                    var8 = -0.4221324803987385
                else:
                    if input[20] <= -0.3701518774032592:
                        var8 = 0.18388173701021615
                    else:
                        var8 = -0.24831222633817301
        else:
            if input[19] > 0.29036192595958715:
                var8 = -0.37117221810539225
            else:
                var8 = -1.5563288304041019
    if input[22] > 670.419403076172:
        if input[6] > 0.38278388977050787:
            if input[831] > 0.000000000000000000000000000000000010000000180025095:
                var9 = -0.6124419864019508
            else:
                if input[678] > 0.000000000000000000000000000000000010000000180025095:
                    var9 = -0.7356212243511902
                else:
                    if input[12] > 0.000000000000000000000000000000000010000000180025095:
                        var9 = -0.10985389923229157
                    else:
                        var9 = 0.19863006367098368
        else:
            if input[742] > 0.000000000000000000000000000000000010000000180025095:
                var9 = -0.2533513020092863
            else:
                if input[19] > 0.2716582119464875:
                    if input[4] > 124.36500167846681:
                        var9 = -0.052616788856536735
                    else:
                        var9 = 0.31915489756224646
                else:
                    if input[22] > 788.8985595703126:
                        var9 = 0.17557859731348283
                    else:
                        var9 = -0.1119669507190768
    else:
        if input[11] > 1.5000000000000002:
            if input[964] > 0.000000000000000000000000000000000010000000180025095:
                var9 = -0.6684573055738472
            else:
                if input[5] > 4.500000000000001:
                    var9 = -0.4526783689654251
                else:
                    if input[5] > 2.5000000000000004:
                        var9 = 0.2347513212732437
                    else:
                        var9 = -0.16260264592312013
        else:
            if input[19] > 0.29036192595958715:
                var9 = -0.35266646391730705
            else:
                var9 = -1.478722144522757
    if input[1] > 2.4862699508666997:
        if input[1] > 3.442409992218018:
            if input[2] > 0.000000000000000000000000000000000010000000180025095:
                if input[13] > 0.000000000000000000000000000000000010000000180025095:
                    if input[21] > 1.8827362060546877:
                        var10 = -0.07000844155681744
                    else:
                        var10 = 0.22571175815329345
                else:
                    if input[14] > 2.5000000000000004:
                        var10 = 0.05551801714961884
                    else:
                        var10 = 0.35450293122888166
            else:
                if input[8] > 5.500000000000001:
                    var10 = 0.27920547992067263
                else:
                    var10 = -0.41585627691443716
        else:
            if input[6] > 0.38278388977050787:
                if input[17] > 5.500000000000001:
                    if input[28] > 178.75714111328128:
                        var10 = -0.25381863395132814
                    else:
                        var10 = 0.32453731612779607
                else:
                    var10 = -0.7373781952724988
            else:
                if input[1505] > 0.000000000000000000000000000000000010000000180025095:
                    if input[1228] > 0.000000000000000000000000000000000010000000180025095:
                        var10 = 0.24231073498321334
                    else:
                        var10 = 0.4013948831051291
                else:
                    if input[6] > 0.14550264924764636:
                        var10 = -0.06103796028307652
                    else:
                        var10 = 0.3063056543586761
    else:
        if input[22] > 552.9367675781251:
            if input[6] > 0.2247474789619446:
                if input[3] > 4.500000000000001:
                    if input[143] > 0.000000000000000000000000000000000010000000180025095:
                        var10 = -0.8271530035265249
                    else:
                        var10 = -0.2529653096455597
                else:
                    var10 = -1.0036788425479943
            else:
                if input[0] > 306.8815002441407:
                    var10 = 0.38733020227958714
                else:
                    var10 = -0.09841047577572325
        else:
            if input[6] > 0.3726851791143418:
                var10 = -1.4653169631958007
            else:
                var10 = -0.8524337431265844
    if input[22] > 670.419403076172:
        if input[6] > 0.37797619402408605:
            if input[831] > 0.000000000000000000000000000000000010000000180025095:
                var11 = -0.5714016667845746
            else:
                if input[678] > 0.000000000000000000000000000000000010000000180025095:
                    var11 = -0.6774392060379483
                else:
                    if input[334] > 0.000000000000000000000000000000000010000000180025095:
                        var11 = -0.4713458945518707
                    else:
                        var11 = 0.02184604703696031
        else:
            if input[783] > 0.000000000000000000000000000000000010000000180025095:
                var11 = -0.36312430211617247
            else:
                if input[16] > 4.500000000000001:
                    var11 = -0.3902854835883302
                else:
                    if input[742] > 0.000000000000000000000000000000000010000000180025095:
                        var11 = -0.24646644142177918
                    else:
                        var11 = 0.22399950094306542
    else:
        if input[6] > 0.3726851791143418:
            if input[1354] > 0.000000000000000000000000000000000010000000180025095:
                var11 = -0.36452883730107305
            else:
                if input[27] > 3.8210724592208867:
                    var11 = -0.7405988301505747
                else:
                    var11 = -1.3733181268842387
        else:
            if input[26] > 4.201262950897218:
                if input[26] > 6.388713836669923:
                    var11 = -0.3015740819831393
                else:
                    if input[8] > 5.500000000000001:
                        var11 = -0.05451246467650746
                    else:
                        var11 = 0.2567598365181702
            else:
                var11 = -0.8335674704783465
    if input[1] > 2.5054000616073613:
        if input[1] > 3.467689990997315:
            if input[2] > 0.000000000000000000000000000000000010000000180025095:
                if input[12] > 1.5000000000000002:
                    if input[21] > 1.2413026690483095:
                        var12 = 0.1448392330414027
                    else:
                        var12 = -0.10560762862446892
                else:
                    if input[1] > 3.8987100124359135:
                        var12 = 0.3124870667992555
                    else:
                        var12 = 0.14780064000621787
            else:
                if input[1] > 4.894000053405763:
                    var12 = 0.3546442818857426
                else:
                    if input[23] <= -2.455000042915344:
                        var12 = 0.158218672717235
                    else:
                        var12 = -0.581640342917022
        else:
            if input[4] > 40.62500000000001:
                if input[1779] > 0.000000000000000000000000000000000010000000180025095:
                    if input[5] > 9.500000000000002:
                        var12 = -0.3444567736401501
                    else:
                        var12 = 0.09428951953069391
                else:
                    var12 = -0.4673517189500652
            else:
                var12 = -0.6539397933364453
    else:
        if input[23] <= -1.9350000023841856:
            if input[334] > 0.000000000000000000000000000000000010000000180025095:
                var12 = -0.907567319335779
            else:
                if input[30] > 0.000000000000000000000000000000000010000000180025095:
                    if input[1481] > 0.000000000000000000000000000000000010000000180025095:
                        var12 = -0.32258681506659853
                    else:
                        var12 = -0.8234958760150066
                else:
                    if input[1] > 1.2640799880027773:
                        var12 = -0.012847415885336947
                    else:
                        var12 = -0.38682979029971504
        else:
            if input[27] > 2.3665310144424443:
                if input[6] > 0.42582418024539953:
                    var12 = -1.0545715349564857
                else:
                    var12 = 0.1051004348772962
            else:
                var12 = -1.3852098876509924
    if input[1] > 2.4862699508666997:
        if input[1] > 3.1613600254058842:
            if input[4] > 43.80999946594239:
                if input[1980] > 0.000000000000000000000000000000000010000000180025095:
                    if input[1] > 3.967700004577637:
                        var13 = 0.2287603114724464
                    else:
                        var13 = -0.41591612741128725
                else:
                    if input[13] > 0.000000000000000000000000000000000010000000180025095:
                        var13 = 0.16428481994303082
                    else:
                        var13 = 0.2970406507547654
            else:
                if input[1] > 4.894000053405763:
                    var13 = 0.37450839993488266
                else:
                    if input[26] > 6.6606740951538095:
                        var13 = -0.7747406489294834
                    else:
                        var13 = 0.14017898118027747
        else:
            if input[19] > 0.16530607640743258:
                if input[5] > 4.500000000000001:
                    if input[27] > 3.744850039482117:
                        var13 = -0.040193062574547245
                    else:
                        var13 = -0.5606769991110995
                else:
                    if input[1143] > 0.000000000000000000000000000000000010000000180025095:
                        var13 = 0.09282252688996524
                    else:
                        var13 = 0.351446521207876
            else:
                var13 = -0.6070230530336569
    else:
        if input[22] > 555.9741210937501:
            if input[6] > 0.2247474789619446:
                if input[3] > 4.500000000000001:
                    if input[1628] > 0.000000000000000000000000000000000010000000180025095:
                        var13 = -0.7769349692557095
                    else:
                        var13 = -0.2149291141229259
                else:
                    var13 = -0.9044711039956138
            else:
                if input[0] > 306.8815002441407:
                    var13 = 0.36490609235893007
                else:
                    var13 = -0.06433728425875561
        else:
            if input[1] > 1.2206000089645388:
                var13 = -0.7283896850817131
            else:
                var13 = -1.3361365994410728
    if input[1] > 2.4419499635696416:
        if input[1] > 3.1613600254058842:
            if input[6] > 0.42582418024539953:
                if input[0] > 382.11149597167974:
                    if input[26] > 11.292978286743166:
                        var14 = 0.2734974608851725
                    else:
                        var14 = -0.002352440956444551
                else:
                    var14 = -0.3388102392970082
            else:
                if input[20] <= -0.31699702143669123:
                    if input[809] > 0.000000000000000000000000000000000010000000180025095:
                        var14 = 0.002410213016716503
                    else:
                        var14 = 0.24964402914047945
                else:
                    var14 = -0.08479489570837526
        else:
            if input[6] > 0.6099033653736116:
                var14 = -0.6738785203599251
            else:
                if input[19] > 0.16530607640743258:
                    if input[5] > 4.500000000000001:
                        var14 = -0.06494990823325696
                    else:
                        var14 = 0.2576316983170818
                else:
                    var14 = -0.5315391210018177
    else:
        if input[22] > 555.9741210937501:
            if input[6] > 0.22902098298072818:
                if input[3] > 4.500000000000001:
                    if input[1628] > 0.000000000000000000000000000000000010000000180025095:
                        var14 = -0.7382723181168614
                    else:
                        var14 = -0.20438704761526855
                else:
                    var14 = -0.9108954389890034
            else:
                if input[22] > 711.3968200683595:
                    var14 = 0.2538477748929267
                else:
                    var14 = -0.10897081006522202
        else:
            if input[1] > 1.2206000089645388:
                var14 = -0.662530068311646
            else:
                var14 = -1.269662149865829
    if input[1] > 2.4862699508666997:
        if input[1] > 3.467689990997315:
            if input[12] > 1.5000000000000002:
                if input[0] > 489.9940032958985:
                    var15 = 0.1574299122818289
                else:
                    var15 = -0.36866341249749235
            else:
                if input[1] > 4.410249948501588:
                    if input[339] > 0.000000000000000000000000000000000010000000180025095:
                        var15 = 0.1652308617715424
                    else:
                        var15 = 0.3121050386858574
                else:
                    if input[4] > 46.12999916076661:
                        var15 = 0.18296734865868894
                    else:
                        var15 = -0.1834539767686087
        else:
            if input[4] > 40.62500000000001:
                if input[1779] > 0.000000000000000000000000000000000010000000180025095:
                    if input[25] > 22.092294692993168:
                        var15 = -0.11441338130528096
                    else:
                        var15 = 0.13002390932908356
                else:
                    var15 = -0.4104280016659777
            else:
                var15 = -0.5928059814202838
    else:
        if input[23] <= -1.9350000023841856:
            if input[334] > 0.000000000000000000000000000000000010000000180025095:
                var15 = -0.8796729567247035
            else:
                if input[30] > 0.000000000000000000000000000000000010000000180025095:
                    if input[6] > 0.38585607707500463:
                        var15 = -0.7597232743282223
                    else:
                        var15 = -0.28864988144751974
                else:
                    if input[1] > 1.2640799880027773:
                        var15 = 0.007815921736426399
                    else:
                        var15 = -0.3254630125192709
        else:
            if input[27] > 2.3665310144424443:
                if input[6] > 0.42582418024539953:
                    var15 = -0.992107428170712
                else:
                    var15 = 0.16122732970386888
            else:
                var15 = -1.2259371951407911
    if input[1] > 2.4419499635696416:
        if input[1] > 3.1613600254058842:
            if input[4] > 43.80999946594239:
                if input[1980] > 0.000000000000000000000000000000000010000000180025095:
                    if input[1] > 3.967700004577637:
                        var16 = 0.192449889574057
                    else:
                        var16 = -0.4048738693716514
                else:
                    if input[1297] > 0.000000000000000000000000000000000010000000180025095:
                        var16 = -0.0437206091473966
                    else:
                        var16 = 0.2159243592642445
            else:
                if input[1] > 4.894000053405763:
                    var16 = 0.3431152792090914
                else:
                    if input[26] > 6.6606740951538095:
                        var16 = -0.7261197127539293
                    else:
                        var16 = 0.13898943788020274
        else:
            if input[6] > 0.6099033653736116:
                var16 = -0.623795118857334
            else:
                if input[19] > 0.16530607640743258:
                    if input[25] > 22.45445060729981:
                        var16 = -0.1978914912632476
                    else:
                        var16 = 0.11914700856403414
                else:
                    var16 = -0.4932917228524719
    else:
        if input[22] > 555.9741210937501:
            if input[6] > 0.22902098298072818:
                if input[3] > 4.500000000000001:
                    if input[1628] > 0.000000000000000000000000000000000010000000180025095:
                        var16 = -0.6779595366868927
                    else:
                        var16 = -0.17980639506444085
                else:
                    var16 = -0.8413131842732059
            else:
                if input[22] > 711.3968200683595:
                    var16 = 0.2445029999749119
                else:
                    var16 = -0.09664754460551844
        else:
            if input[1] > 1.2206000089645388:
                var16 = -0.5884078654067776
            else:
                var16 = -1.1683522169862812
    if input[1] > 2.4419499635696416:
        if input[1] > 3.467689990997315:
            if input[20] <= -0.30763678252696985:
                if input[12] > 0.000000000000000000000000000000000010000000180025095:
                    if input[8] > 5.500000000000001:
                        var17 = 0.14192296069639912
                    else:
                        var17 = -0.20954789568516327
                else:
                    if input[1980] > 0.000000000000000000000000000000000010000000180025095:
                        var17 = 0.06347943046200948
                    else:
                        var17 = 0.25745999641634026
            else:
                var17 = -0.26993612691537655
        else:
            if input[6] > 0.5847701132297517:
                var17 = -0.4854634383483714
            else:
                if input[6] > 0.14550264924764636:
                    if input[17] > 4.500000000000001:
                        var17 = 0.030625895574854418
                    else:
                        var17 = -0.34334324235870833
                else:
                    if input[27] > 2.8254351615905766:
                        var17 = 0.33825512779832456
                    else:
                        var17 = 0.20419784795983406
    else:
        if input[22] > 555.9741210937501:
            if input[20] <= -0.3502864390611648:
                if input[6] > 0.37797619402408605:
                    if input[4] > 93.14999771118165:
                        var17 = -0.25288951558070244
                    else:
                        var17 = -0.8316114609217762
                else:
                    if input[1117] > 0.000000000000000000000000000000000010000000180025095:
                        var17 = 0.10361240920770774
                    else:
                        var17 = -0.19852226512659416
            else:
                var17 = -0.7222185298085653
        else:
            if input[19] > 0.26861695945262914:
                var17 = -0.5337409543753856
            else:
                var17 = -1.1082896765939432
    if input[1] > 1.6548900008201601:
        if input[1] > 3.0360499620437627:
            if input[4] > 43.80999946594239:
                if input[1944] > 0.000000000000000000000000000000000010000000180025095:
                    var18 = -0.21386511356078391
                else:
                    if input[12] > 1.5000000000000002:
                        var18 = 0.00440633269603143
                    else:
                        var18 = 0.18962846948530765
            else:
                if input[1] > 4.894000053405763:
                    var18 = 0.324783900540426
                else:
                    if input[26] > 6.554802179336549:
                        var18 = -0.7004586403312552
                    else:
                        var18 = 0.09695980042797048
        else:
            if input[6] > 0.3900966197252274:
                if input[4] > 70.28499984741212:
                    if input[418] > 0.000000000000000000000000000000000010000000180025095:
                        var18 = -0.5918856356587927
                    else:
                        var18 = -0.04531422982281347
                else:
                    var18 = -1.000777095467297
            else:
                if input[1957] > 0.000000000000000000000000000000000010000000180025095:
                    if input[1117] > 0.000000000000000000000000000000000010000000180025095:
                        var18 = 0.11903277910485538
                    else:
                        var18 = -0.3469266067286467
                else:
                    if input[16] > 3.5000000000000004:
                        var18 = -0.3209590081715476
                    else:
                        var18 = 0.1477580103112102
    else:
        if input[4] > 81.65999984741212:
            if input[4] > 117.8249969482422:
                if input[26] > 9.833785057067873:
                    var18 = -0.2017016282714749
                else:
                    var18 = -0.940750823085664
            else:
                if input[27] > 4.111065864562989:
                    var18 = -0.3605509423201357
                else:
                    var18 = 0.2263864399351146
        else:
            var18 = -1.1390688029634597
    var19 = var0 + var1 + var2 + var3 + var4 + var5 + var6 + var7 + var8 + var9 + var10 + var11 + var12 + var13 + var14 + var15 + var16 + var17 + var18
    if input[1] > 1.6548900008201601:
        if input[1] > 3.0360499620437627:
            if input[4] > 43.80999946594239:
                if input[1944] > 0.000000000000000000000000000000000010000000180025095:
                    var20 = -0.20321131102685777
                else:
                    if input[979] > 0.000000000000000000000000000000000010000000180025095:
                        var20 = -0.020182792489368124
                    else:
                        var20 = 0.17891489255711057
            else:
                if input[1] > 4.781749963760377:
                    var20 = 0.23985239169208664
                else:
                    if input[26] > 6.554802179336549:
                        var20 = -0.9270473657061138
                    else:
                        var20 = 0.09212524164416454
        else:
            if input[6] > 0.3900966197252274:
                if input[4] > 70.28499984741212:
                    if input[418] > 0.000000000000000000000000000000000010000000180025095:
                        var20 = -0.5623781413976049
                    else:
                        var20 = -0.04305200291462758
                else:
                    var20 = -0.9509871958500116
            else:
                if input[1957] > 0.000000000000000000000000000000000010000000180025095:
                    if input[1117] > 0.000000000000000000000000000000000010000000180025095:
                        var20 = 0.11310934484075595
                    else:
                        var20 = -0.3296196190678343
                else:
                    if input[16] > 3.5000000000000004:
                        var20 = -0.3049836614417814
                    else:
                        var20 = 0.14037496495102872
    else:
        if input[4] > 81.65999984741212:
            if input[4] > 117.8249969482422:
                if input[26] > 9.833785057067873:
                    var20 = -0.19165839055761758
                else:
                    var20 = -0.8939261018960183
            else:
                if input[27] > 4.111065864562989:
                    var20 = -0.34261308038116095
                else:
                    var20 = 0.21511834231437066
        else:
            var20 = -1.0823045717917406
    if input[1] > 2.5054000616073613:
        if input[1] > 3.8323500156402592:
            if input[12] > 1.5000000000000002:
                if input[0] > 489.9940032958985:
                    var21 = 0.13465137311265615
                else:
                    var21 = -0.34191450652491545
            else:
                if input[2] > 0.000000000000000000000000000000000010000000180025095:
                    if input[1] > 4.848299980163575:
                        var21 = 0.27096234148425186
                    else:
                        var21 = 0.19154734892648417
                else:
                    if input[8] > 5.500000000000001:
                        var21 = 0.24171111869021053
                    else:
                        var21 = -0.21450107821184605
        else:
            if input[1980] > 0.000000000000000000000000000000000010000000180025095:
                var21 = -0.4420445441754157
            else:
                if input[4] > 42.00000000000001:
                    if input[266] > 0.000000000000000000000000000000000010000000180025095:
                        var21 = -0.32921074813776846
                    else:
                        var21 = 0.09782484834098548
                else:
                    var21 = -0.34266159751127395
    else:
        if input[22] > 560.291717529297:
            if input[602] > 0.000000000000000000000000000000000010000000180025095:
                var21 = -0.6071948139230537
            else:
                if input[1628] > 0.000000000000000000000000000000000010000000180025095:
                    var21 = -0.5977187100744925
                else:
                    if input[1] > 1.2640799880027773:
                        var21 = -0.010112972807647478
                    else:
                        var21 = -0.4873904958750657
        else:
            if input[6] > 0.3726851791143418:
                var21 = -1.0387752420762006
            else:
                var21 = -0.3949027267234454
    if input[1] > 3.0360499620437627:
        if input[20] <= -0.30866177380084986:
            if input[6] > 0.42582418024539953:
                if input[4] > 73.2050018310547:
                    if input[8] > 8.500000000000002:
                        var22 = 0.001137817687416279
                    else:
                        var22 = 0.3083345209334638
                else:
                    if input[1] > 4.781749963760377:
                        var22 = 0.0898125034016419
                    else:
                        var22 = -0.33248897148316436
            else:
                if input[197] > 0.000000000000000000000000000000000010000000180025095:
                    if input[1] > 4.0286200046539316:
                        var22 = 0.2086390144048046
                    else:
                        var22 = -0.2901846430608346
                else:
                    if input[878] > 0.000000000000000000000000000000000010000000180025095:
                        var22 = -0.07035198515629863
                    else:
                        var22 = 0.19407650167193136
        else:
            var22 = -0.269295839270663
    else:
        if input[1] > 1.6548900008201601:
            if input[6] > 0.3900966197252274:
                if input[27] > 3.782013893127442:
                    if input[5] > 8.500000000000002:
                        var22 = -0.46591938351973505
                    else:
                        var22 = -0.019595624095493966
                else:
                    var22 = -0.8244851134687781
            else:
                if input[1957] > 0.000000000000000000000000000000000010000000180025095:
                    if input[6] > 0.2094298228621483:
                        var22 = -0.3124065323441626
                    else:
                        var22 = 0.12753906614744842
                else:
                    if input[16] > 3.5000000000000004:
                        var22 = -0.28834423027022393
                    else:
                        var22 = 0.13425717949622326
        else:
            if input[4] > 81.65999984741212:
                if input[4] > 117.8249969482422:
                    if input[1143] > 0.000000000000000000000000000000000010000000180025095:
                        var22 = -0.15019734876727628
                    else:
                        var22 = -0.7776107548059764
                else:
                    if input[27] > 4.111065864562989:
                        var22 = -0.3030009082930895
                    else:
                        var22 = 0.22061308320291442
            else:
                var22 = -0.9983506034775034
    if input[1] > 2.5054000616073613:
        if input[1] > 3.967700004577637:
            if input[12] > 1.5000000000000002:
                if input[28] > 212.4724273681641:
                    var23 = 0.2128911849600158
                else:
                    var23 = -0.2262907026464589
            else:
                if input[1] > 4.864340066909791:
                    if input[339] > 0.000000000000000000000000000000000010000000180025095:
                        var23 = 0.0872178942610175
                    else:
                        var23 = 0.2801679967983104
                else:
                    if input[704] > 0.000000000000000000000000000000000010000000180025095:
                        var23 = 0.315417214260224
                    else:
                        var23 = 0.1261557949076431
        else:
            if input[4] > 43.80999946594239:
                if input[1980] > 0.000000000000000000000000000000000010000000180025095:
                    var23 = -0.33613499750528625
                else:
                    if input[25] > 21.819411277771:
                        var23 = -0.06480241204723766
                    else:
                        var23 = 0.132091764374715
            else:
                if input[18] > 105.00000000000001:
                    var23 = -0.7524860620498657
                else:
                    var23 = -0.05274686421699451
    else:
        if input[22] > 560.291717529297:
            if input[20] <= -0.3502864390611648:
                if input[1628] > 0.000000000000000000000000000000000010000000180025095:
                    var23 = -0.557380748448355
                else:
                    if input[1] > 1.4773400425910952:
                        var23 = 0.012855142845326488
                    else:
                        var23 = -0.2972597011682453
            else:
                var23 = -0.5598414301129516
        else:
            if input[3] > 3.5000000000000004:
                var23 = -0.8543948202754346
            else:
                var23 = -0.35870569238615274
    if input[1] > 3.0360499620437627:
        if input[20] <= -0.30763678252696985:
            if input[6] > 0.42582418024539953:
                if input[4] > 72.66500091552736:
                    if input[8] > 8.500000000000002:
                        var24 = -0.002000860982196852
                    else:
                        var24 = 0.27466431181717355
                else:
                    if input[23] <= -2.0849999189376827:
                        var24 = -0.4997553944587707
                    else:
                        var24 = 0.1534202959809758
            else:
                if input[197] > 0.000000000000000000000000000000000010000000180025095:
                    if input[1] > 4.0286200046539316:
                        var24 = 0.19065745914753396
                    else:
                        var24 = -0.2762726859927672
                else:
                    if input[1125] > 0.000000000000000000000000000000000010000000180025095:
                        var24 = -0.09066104450036044
                    else:
                        var24 = 0.17560278045681046
        else:
            var24 = -0.2805027123941368
    else:
        if input[22] > 564.9290771484376:
            if input[30] > 0.000000000000000000000000000000000010000000180025095:
                if input[21] > 1.8604700565338137:
                    if input[22] > 788.8985595703126:
                        var24 = 0.17661783870819694
                    else:
                        var24 = -0.21758078971312417
                else:
                    if input[25] > 23.42408657073975:
                        var24 = -0.14678679608076894
                    else:
                        var24 = -0.7610837644749187
            else:
                if input[334] > 0.000000000000000000000000000000000010000000180025095:
                    var24 = -0.602412812373295
                else:
                    if input[0] > 306.8815002441407:
                        var24 = 0.07516043724683688
                    else:
                        var24 = -0.17318828498139074
        else:
            if input[11] > 1.5000000000000002:
                var24 = -0.1510475281506671
            else:
                var24 = -0.7907478416998556
    if input[1] > 1.6548900008201601:
        if input[6] > 0.39339827001094824:
            if input[28] > 160.43698883056643:
                if input[1] > 2.939059972763062:
                    if input[19] > 0.3362398445606232:
                        var25 = 0.23148017775008778
                    else:
                        var25 = -0.004893298251025438
                else:
                    if input[768] > 0.000000000000000000000000000000000010000000180025095:
                        var25 = -0.5049485822723493
                    else:
                        var25 = 0.006619226034118828
            else:
                if input[19] > 0.26785331964492803:
                    var25 = -0.07810555848059375
                else:
                    var25 = -0.644095207324491
        else:
            if input[1] > 3.7958999872207646:
                if input[1184] > 0.000000000000000000000000000000000010000000180025095:
                    var25 = -0.07133008206342632
                else:
                    if input[955] > 0.000000000000000000000000000000000010000000180025095:
                        var25 = 0.13424667469588533
                    else:
                        var25 = 0.21546295310716293
            else:
                if input[1980] > 0.000000000000000000000000000000000010000000180025095:
                    var25 = -0.49582737171234775
                else:
                    if input[742] > 0.000000000000000000000000000000000010000000180025095:
                        var25 = -0.28480567391961814
                    else:
                        var25 = 0.08944043565914822
    else:
        if input[4] > 81.65999984741212:
            if input[4] > 117.8249969482422:
                if input[26] > 9.833785057067873:
                    var25 = -0.12091346479550436
                else:
                    var25 = -0.7634997474762919
            else:
                if input[27] > 4.111065864562989:
                    var25 = -0.259177356202211
                else:
                    var25 = 0.23415882263787735
        else:
            var25 = -0.89589625165312
    if input[22] > 670.419403076172:
        if input[1628] > 0.000000000000000000000000000000000010000000180025095:
            if input[26] > 9.833785057067873:
                var26 = -0.01982703370402059
            else:
                var26 = -0.628508278445818
        else:
            if input[2038] > 0.000000000000000000000000000000000010000000180025095:
                if input[20] <= -0.3916791230440139:
                    var26 = 0.07898482535621361
                else:
                    var26 = -0.44893862973126214
            else:
                if input[1316] > 0.000000000000000000000000000000000010000000180025095:
                    var26 = -0.27060539757401364
                else:
                    if input[961] > 0.000000000000000000000000000000000010000000180025095:
                        var26 = -0.20303200644160074
                    else:
                        var26 = 0.10230009449657791
    else:
        if input[5] > 6.500000000000001:
            var26 = -0.8663835119845262
        else:
            if input[1089] > 0.000000000000000000000000000000000010000000180025095:
                var26 = -0.6717019355067839
            else:
                if input[26] > 4.3142292499542245:
                    if input[19] > 0.3073559403419495:
                        var26 = 0.3158911524359713
                    else:
                        var26 = -0.10328297581620485
                else:
                    var26 = -0.4643263202589991
    if input[22] > 670.419403076172:
        if input[6] > 0.4031250029802323:
            if input[20] <= -0.35025754570960993:
                if input[26] > 6.819175958633424:
                    if input[1321] > 0.000000000000000000000000000000000010000000180025095:
                        var27 = 0.35162831048685983
                    else:
                        var27 = -0.04538602375357826
                else:
                    var27 = -0.40449211939251256
            else:
                var27 = -0.3142373548155016
        else:
            if input[1286] > 0.000000000000000000000000000000000010000000180025095:
                var27 = -0.35366959967319433
            else:
                if input[783] > 0.000000000000000000000000000000000010000000180025095:
                    var27 = -0.2619124413906843
                else:
                    if input[175] > 0.000000000000000000000000000000000010000000180025095:
                        var27 = -0.2860335563694067
                    else:
                        var27 = 0.11984473016474456
    else:
        if input[6] > 0.30602006614208227:
            if input[20] <= -0.34970574080944056:
                if input[25] > 14.806659221649172:
                    var27 = -0.8237483303847276
                else:
                    var27 = -0.26091892545165885
            else:
                var27 = -0.09368963934079244
        else:
            if input[26] > 4.201262950897218:
                if input[23] <= -1.9650000333786009:
                    var27 = -0.01724114738562316
                else:
                    var27 = 0.3226628284861609
            else:
                var27 = -0.4360955147204063
    if input[6] > 0.3726851791143418:
        if input[0] > 339.9649963378907:
            if input[1628] > 0.000000000000000000000000000000000010000000180025095:
                var28 = -0.3630021404665882
            else:
                if input[679] > 0.000000000000000000000000000000000010000000180025095:
                    if input[678] > 0.000000000000000000000000000000000010000000180025095:
                        var28 = -0.4199680406043972
                    else:
                        var28 = -0.031224878674868697
                else:
                    if input[21] > 1.5880393981933596:
                        var28 = 0.13591767358610216
                    else:
                        var28 = 0.4116836391692787
        else:
            if input[25] > 15.037381649017336:
                var28 = -1.0815915376779093
            else:
                var28 = -0.18235690217913073
    else:
        if input[16] > 4.500000000000001:
            var28 = -0.427565688515141
        else:
            if input[25] > 9.915613174438478:
                if input[783] > 0.000000000000000000000000000000000010000000180025095:
                    var28 = -0.2630780586683418
                else:
                    if input[742] > 0.000000000000000000000000000000000010000000180025095:
                        var28 = -0.20481135841351228
                    else:
                        var28 = 0.11708736568494416
            else:
                var28 = -0.4422815235099982
    if input[22] > 670.419403076172:
        if input[1779] > 0.000000000000000000000000000000000010000000180025095:
            if input[6] > 0.3514705896377564:
                if input[831] > 0.000000000000000000000000000000000010000000180025095:
                    var29 = -0.3301379564878433
                else:
                    if input[381] > 0.000000000000000000000000000000000010000000180025095:
                        var29 = -0.40097396734045515
                    else:
                        var29 = 0.02650349733292325
            else:
                if input[221] > 0.000000000000000000000000000000000010000000180025095:
                    var29 = -0.2187419873278288
                else:
                    if input[961] > 0.000000000000000000000000000000000010000000180025095:
                        var29 = -0.24127421557094175
                    else:
                        var29 = 0.12445502936623827
        else:
            if input[1884] > 0.000000000000000000000000000000000010000000180025095:
                var29 = 0.02781052171626938
            else:
                var29 = -0.6827527437023642
    else:
        if input[704] > 0.000000000000000000000000000000000010000000180025095:
            var29 = 0.2518194889200145
        else:
            if input[6] > 0.30602006614208227:
                if input[21] > 2.0837996006011967:
                    if input[25] > 15.037381649017336:
                        var29 = -1.0806578293795832
                    else:
                        var29 = -0.4055124208937943
                else:
                    if input[26] > 7.289662837982179:
                        var29 = 0.015345426993583567
                    else:
                        var29 = -0.444831958935724
            else:
                if input[26] > 4.427840232849122:
                    if input[22] > 575.4772033691407:
                        var29 = -0.019358510842461804
                    else:
                        var29 = 0.2336243115847384
                else:
                    var29 = -0.43261645759932055
    if input[1] > 3.0360499620437627:
        if input[20] <= -0.30866177380084986:
            if input[19] > 0.26555813848972326:
                if input[6] > 0.5178799331188203:
                    if input[13] > 1.5000000000000002:
                        var30 = -0.23786090434406681
                    else:
                        var30 = 0.17174428504516637
                else:
                    if input[19] > 0.43121416866779333:
                        var30 = 0.03380052054426677
                    else:
                        var30 = 0.1928306650623335
            else:
                if input[21] > 2.033079624176026:
                    if input[26] > 7.334509134292603:
                        var30 = -0.49016244050228236
                    else:
                        var30 = 0.05157154246541848
                else:
                    if input[1869] > 0.000000000000000000000000000000000010000000180025095:
                        var30 = -0.11863382951944355
                    else:
                        var30 = 0.11701879746818984
        else:
            var30 = -0.2440617055231142
    else:
        if input[19] > 0.15529493987560275:
            if input[1] > 1.6548900008201601:
                if input[18] > 109.00000000000001:
                    if input[8] > 7.500000000000001:
                        var30 = -0.021416901551372245
                    else:
                        var30 = -0.28536491036078987
                else:
                    if input[6] > 0.08166666701436044:
                        var30 = 0.3686413967189901
                    else:
                        var30 = 0.010114638429682403
            else:
                if input[4] > 81.65999984741212:
                    if input[4] > 117.8249969482422:
                        var30 = -0.3863578546331658
                    else:
                        var30 = 0.026023483856839974
                else:
                    var30 = -0.7194856970931378
        else:
            var30 = -0.6806287249117666
    if input[1] > 3.0360499620437627:
        if input[19] > 0.26761886477470404:
            if input[13] > 1.5000000000000002:
                if input[19] > 0.33079840242862707:
                    var31 = 0.12870779008607242
                else:
                    var31 = -0.2130008270006731
            else:
                if input[19] > 0.41836841404438024:
                    var31 = 0.02465057406584015
                else:
                    if input[23] <= -2.514999985694885:
                        var31 = 0.17072485099666088
                    else:
                        var31 = 0.2665468310597065
        else:
            if input[1] > 4.814450025558473:
                if input[27] > 4.236997842788697:
                    if input[21] > 1.6658339500427248:
                        var31 = 0.25104507172285623
                    else:
                        var31 = 0.10022085466524884
                else:
                    var31 = 0.3546851097125013
            else:
                if input[4] > 43.80999946594239:
                    if input[1265] > 0.000000000000000000000000000000000010000000180025095:
                        var31 = -0.24118601226575487
                    else:
                        var31 = 0.07185033305893868
                else:
                    if input[27] > 3.2005352973937993:
                        var31 = -0.8699535132047548
                    else:
                        var31 = 0.09187841463792808
    else:
        if input[961] > 0.000000000000000000000000000000000010000000180025095:
            var31 = -0.5981140104167135
        else:
            if input[1628] > 0.000000000000000000000000000000000010000000180025095:
                var31 = -0.5577600205076576
            else:
                if input[30] > 0.000000000000000000000000000000000010000000180025095:
                    if input[25] > 24.814620018005375:
                        var31 = 0.19782123357923198
                    else:
                        var31 = -0.36888941738765046
                else:
                    if input[1] > 1.61505001783371:
                        var31 = 0.07807796285855606
                    else:
                        var31 = -0.2628504384244112
    if input[1] > 2.5054000616073613:
        if input[16] > 4.500000000000001:
            var32 = -0.3414730889180979
        else:
            if input[19] > 0.2625564485788346:
                if input[14] > 2.5000000000000004:
                    var32 = -0.21566099996780635
                else:
                    if input[21] > 1.283117711544037:
                        var32 = 0.175500821203719
                    else:
                        var32 = -0.03752315766264743
            else:
                if input[21] > 2.033079624176026:
                    if input[6] > 0.2366946786642075:
                        var32 = -0.5359978063649565
                    else:
                        var32 = 0.06016722929056051
                else:
                    if input[2] > 0.000000000000000000000000000000000010000000180025095:
                        var32 = 0.07662905974801465
                    else:
                        var32 = -0.18077423400364456
    else:
        if input[4] > 84.47999954223634:
            if input[602] > 0.000000000000000000000000000000000010000000180025095:
                var32 = -0.4321751742135911
            else:
                if input[831] > 0.000000000000000000000000000000000010000000180025095:
                    var32 = -0.32709536767822933
                else:
                    if input[1] > 1.2640799880027773:
                        var32 = 0.15973199817956277
                    else:
                        var32 = -0.3881217993133009
        else:
            if input[1] > 1.61505001783371:
                if input[6] > 0.4188596457242966:
                    var32 = -0.6582390330414071
                else:
                    if input[24] > 98970.35546875001:
                        var32 = -0.22836269115511315
                    else:
                        var32 = 0.2632295810088083
            else:
                var32 = -0.7094302926769704
    if input[1] > 3.0360499620437627:
        if input[20] <= -0.30866177380084986:
            if input[1980] > 0.000000000000000000000000000000000010000000180025095:
                if input[23] <= -2.6049998998641963:
                    if input[22] > 1144.0744628906252:
                        var33 = 0.20365524116717992
                    else:
                        var33 = -0.04058874697167409
                else:
                    var33 = -0.43306504795901585
            else:
                if input[13] > 0.000000000000000000000000000000000010000000180025095:
                    if input[21] > 2.028469562530518:
                        var33 = -0.3436626733239017
                    else:
                        var33 = 0.06355723352402196
                else:
                    if input[14] > 2.5000000000000004:
                        var33 = 0.05677151204315705
                    else:
                        var33 = 0.18453559860487467
        else:
            var33 = -0.22506637318702782
    else:
        if input[19] > 0.1579108238220215:
            if input[1628] > 0.000000000000000000000000000000000010000000180025095:
                var33 = -0.514461843279015
            else:
                if input[1] > 1.6548900008201601:
                    if input[30] > 0.000000000000000000000000000000000010000000180025095:
                        var33 = -0.2132399463572627
                    else:
                        var33 = 0.08841920377246631
                else:
                    if input[22] > 555.9741210937501:
                        var33 = -0.14796772101757102
                    else:
                        var33 = -0.6458883190494414
        else:
            var33 = -0.596609830907929
    if input[22] > 670.419403076172:
        if input[2038] > 0.000000000000000000000000000000000010000000180025095:
            if input[20] <= -0.3916791230440139:
                var34 = 0.06694073835178203
            else:
                var34 = -0.40316596880428035
        else:
            if input[175] > 0.000000000000000000000000000000000010000000180025095:
                var34 = -0.3048642425032273
            else:
                if input[921] > 0.000000000000000000000000000000000010000000180025095:
                    var34 = -0.3572617682235501
                else:
                    if input[1316] > 0.000000000000000000000000000000000010000000180025095:
                        var34 = -0.23946155022194915
                    else:
                        var34 = 0.07349742311996664
    else:
        if input[5] > 6.500000000000001:
            var34 = -0.6864723634957081
        else:
            if input[1089] > 0.000000000000000000000000000000000010000000180025095:
                var34 = -0.5590370293251529
            else:
                if input[27] > 2.183845758438111:
                    if input[19] > 0.3073559403419495:
                        var34 = 0.3464870588674498
                    else:
                        var34 = -0.060062872445074605
                else:
                    var34 = -0.3665700931563478
    if input[1] > 3.0360499620437627:
        if input[20] <= -0.30866177380084986:
            if input[1944] > 0.000000000000000000000000000000000010000000180025095:
                var35 = -0.16600776661545358
            else:
                if input[20] <= -0.49286979436874384:
                    if input[23] <= -2.4999999999999996:
                        var35 = 0.16309791015788527
                    else:
                        var35 = 0.31037232785700114
                else:
                    if input[20] <= -0.4916235208511352:
                        var35 = -0.22554614242921242
                    else:
                        var35 = 0.0810937521085863
        else:
            var35 = -0.21418043752582047
    else:
        if input[961] > 0.000000000000000000000000000000000010000000180025095:
            var35 = -0.5443356021084028
        else:
            if input[635] > 0.000000000000000000000000000000000010000000180025095:
                var35 = -0.5300176213830065
            else:
                if input[1628] > 0.000000000000000000000000000000000010000000180025095:
                    var35 = -0.4859766375534649
                else:
                    if input[2038] > 0.000000000000000000000000000000000010000000180025095:
                        var35 = -0.4236509551047536
                    else:
                        var35 = -0.002235699780092548
    if input[1] > 2.5054000616073613:
        if input[16] > 4.500000000000001:
            var36 = -0.3197608172062384
        else:
            if input[19] > 0.26691861450672155:
                if input[14] > 2.5000000000000004:
                    var36 = -0.18527587158798678
                else:
                    if input[21] > 1.283117711544037:
                        var36 = 0.15880958118773456
                    else:
                        var36 = -0.05171158167479753
            else:
                if input[20] <= -0.30995512008666987:
                    if input[21] > 2.033079624176026:
                        var36 = -0.19571489437008702
                    else:
                        var36 = 0.06097844819835237
                else:
                    var36 = -0.45625720521285074
    else:
        if input[1940] > 0.000000000000000000000000000000000010000000180025095:
            var36 = 0.23812187316730551
        else:
            if input[334] > 0.000000000000000000000000000000000010000000180025095:
                var36 = -0.6881607828097106
            else:
                if input[22] > 715.5028686523439:
                    if input[3] > 4.500000000000001:
                        var36 = 0.03285661104551803
                    else:
                        var36 = -0.35556769228693264
                else:
                    if input[10] > 0.000000000000000000000000000000000010000000180025095:
                        var36 = -0.06615542513771247
                    else:
                        var36 = -0.5554758839309216
    if input[1] > 1.6548900008201601:
        if input[1] > 3.967700004577637:
            if input[12] > 1.5000000000000002:
                if input[28] > 212.4724273681641:
                    var37 = 0.20100773835883423
                else:
                    var37 = -0.19539465912284945
            else:
                if input[17] > 3.5000000000000004:
                    if input[2] > 0.000000000000000000000000000000000010000000180025095:
                        var37 = 0.12823939438809406
                    else:
                        var37 = -0.08623448814528872
                else:
                    var37 = 0.2850757735390817
        else:
            if input[6] > 0.3900966197252274:
                if input[4] > 65.99500274658205:
                    if input[19] > 0.31465345621109014:
                        var37 = 0.10167908019398282
                    else:
                        var37 = -0.1724278149144982
                else:
                    var37 = -0.5213045419863118
            else:
                if input[1980] > 0.000000000000000000000000000000000010000000180025095:
                    var37 = -0.31046419790424257
                else:
                    if input[1265] > 0.000000000000000000000000000000000010000000180025095:
                        var37 = -0.15298520903212098
                    else:
                        var37 = 0.07803371187576116
    else:
        if input[4] > 81.65999984741212:
            if input[4] > 116.939998626709:
                if input[26] > 9.833785057067873:
                    var37 = -0.03512544792717422
                else:
                    var37 = -0.5893583162780448
            else:
                if input[27] > 4.058502197265626:
                    var37 = -0.11252238952105319
                else:
                    var37 = 0.2819644879955816
        else:
            var37 = -0.6468960941233903
    if input[1] > 3.0360499620437627:
        if input[19] > 0.26761886477470404:
            if input[6] > 0.5345238149166108:
                var38 = -0.07087077238800783
            else:
                if input[22] > 906.2406005859376:
                    if input[323] > 0.000000000000000000000000000000000010000000180025095:
                        var38 = -0.02393783231796552
                    else:
                        var38 = 0.13203258229162404
                else:
                    if input[1] > 3.5517100095748906:
                        var38 = 0.27391168558176243
                    else:
                        var38 = 0.14586884362467256
        else:
            if input[1] > 4.814450025558473:
                if input[27] > 4.236997842788697:
                    if input[1] > 5.097949981689454:
                        var38 = 0.20219240622822518
                    else:
                        var38 = 0.07246706939063309
                else:
                    var38 = 0.32498364007868474
            else:
                if input[4] > 43.80999946594239:
                    if input[1265] > 0.000000000000000000000000000000000010000000180025095:
                        var38 = -0.23643831664340317
                    else:
                        var38 = 0.05577606858926526
                else:
                    if input[27] > 3.2005352973937993:
                        var38 = -0.7899744331466024
                    else:
                        var38 = 0.10533293283293609
    else:
        if input[961] > 0.000000000000000000000000000000000010000000180025095:
            var38 = -0.49828960187320775
        else:
            if input[635] > 0.000000000000000000000000000000000010000000180025095:
                var38 = -0.4929151522003727
            else:
                if input[2038] > 0.000000000000000000000000000000000010000000180025095:
                    var38 = -0.3984639264805666
                else:
                    if input[334] > 0.000000000000000000000000000000000010000000180025095:
                        var38 = -0.33492700414805254
                    else:
                        var38 = 0.001589408112579982
    if input[22] > 670.419403076172:
        if input[1115] > 0.000000000000000000000000000000000010000000180025095:
            var39 = 0.3453354719936643
        else:
            if input[1779] > 0.000000000000000000000000000000000010000000180025095:
                if input[1533] > 0.000000000000000000000000000000000010000000180025095:
                    if input[1228] > 0.000000000000000000000000000000000010000000180025095:
                        var39 = -0.4403211493837348
                    else:
                        var39 = -0.02358958215510111
                else:
                    if input[1316] > 0.000000000000000000000000000000000010000000180025095:
                        var39 = -0.23715572608880633
                    else:
                        var39 = 0.050310803755885314
            else:
                if input[1884] > 0.000000000000000000000000000000000010000000180025095:
                    var39 = 0.04368612145304296
                else:
                    var39 = -0.6601660164731058
    else:
        if input[25] > 14.888557434082033:
            if input[0] > 339.9649963378907:
                var39 = -0.03160504220376595
            else:
                var39 = -0.7140401654618551
        else:
            if input[27] > 2.183845758438111:
                if input[19] > 0.29036192595958715:
                    var39 = 0.5506572877659517
                else:
                    if input[4] > 55.12500000000001:
                        var39 = -0.20120894511952936
                    else:
                        var39 = 0.12702512730876234
            else:
                var39 = -0.366386398322442
    if input[652] > 0.000000000000000000000000000000000010000000180025095:
        var40 = -0.44744567597583257
    else:
        if input[6] > 0.3726851791143418:
            if input[0] > 339.9649963378907:
                if input[590] > 0.000000000000000000000000000000000010000000180025095:
                    if input[21] > 1.2410929799079897:
                        var40 = 0.18380255048599498
                    else:
                        var40 = 0.004453209168493111
                else:
                    if input[2038] > 0.000000000000000000000000000000000010000000180025095:
                        var40 = -0.3950898168744908
                    else:
                        var40 = -0.0363863431945591
            else:
                if input[25] > 15.037381649017336:
                    var40 = -0.845289825205981
                else:
                    var40 = -0.062422318887134336
        else:
            if input[1779] > 0.000000000000000000000000000000000010000000180025095:
                if input[1265] > 0.000000000000000000000000000000000010000000180025095:
                    if input[1117] > 0.000000000000000000000000000000000010000000180025095:
                        var40 = 0.009942228488184043
                    else:
                        var40 = -0.31692536585175674
                else:
                    if input[536] > 0.000000000000000000000000000000000010000000180025095:
                        var40 = -0.21501249747652237
                    else:
                        var40 = 0.09462159777926292
            else:
                var40 = -0.4162931081074387
    if input[1] > 1.6548900008201601:
        if input[1628] > 0.000000000000000000000000000000000010000000180025095:
            var41 = -0.3245997789024994
        else:
            if input[1980] > 0.000000000000000000000000000000000010000000180025095:
                if input[1] > 3.6746098995208745:
                    if input[1884] > 0.000000000000000000000000000000000010000000180025095:
                        var41 = 0.14454327050675259
                    else:
                        var41 = -0.07132833410778316
                else:
                    var41 = -0.5052493413699042
            else:
                if input[614] > 0.000000000000000000000000000000000010000000180025095:
                    var41 = 0.366753231143334
                else:
                    if input[891] > 0.000000000000000000000000000000000010000000180025095:
                        var41 = 0.3451552213338029
                    else:
                        var41 = 0.03300060405053786
    else:
        if input[4] > 81.65999984741212:
            if input[4] > 116.939998626709:
                if input[26] > 9.833785057067873:
                    var41 = -0.020287800676100483
                else:
                    var41 = -0.5421419618965743
            else:
                if input[27] > 4.058502197265626:
                    var41 = -0.09752750936432264
                else:
                    var41 = 0.2804087892527829
        else:
            var41 = -0.5962270665505399
    if input[1] > 3.0360499620437627:
        if input[813] > 0.000000000000000000000000000000000010000000180025095:
            var42 = -0.19806547164916993
        else:
            if input[1944] > 0.000000000000000000000000000000000010000000180025095:
                var42 = -0.1589656341412535
            else:
                if input[477] > 0.000000000000000000000000000000000010000000180025095:
                    if input[1181] > 0.000000000000000000000000000000000010000000180025095:
                        var42 = 0.08429618519771834
                    else:
                        var42 = -0.3761355388785991
                else:
                    if input[20] <= -0.49286979436874384:
                        var42 = 0.17573261132104984
                    else:
                        var42 = 0.06633748093095018
    else:
        if input[910] > 0.000000000000000000000000000000000010000000180025095:
            if input[7] > 3.5000000000000004:
                var42 = -0.08872690521069426
            else:
                var42 = -0.7027428337590611
        else:
            if input[19] > 0.1579108238220215:
                if input[1628] > 0.000000000000000000000000000000000010000000180025095:
                    var42 = -0.4272552701599923
                else:
                    if input[30] > 0.000000000000000000000000000000000010000000180025095:
                        var42 = -0.16222184739669115
                    else:
                        var42 = 0.05061260445477211
            else:
                var42 = -0.50378347546307
    if input[961] > 0.000000000000000000000000000000000010000000180025095:
        if input[1117] > 0.000000000000000000000000000000000010000000180025095:
            var43 = 0.10262601950868444
        else:
            var43 = -0.5045629771634531
    else:
        if input[251] > 0.000000000000000000000000000000000010000000180025095:
            if input[1946] > 0.000000000000000000000000000000000010000000180025095:
                if input[0] > 429.48200988769537:
                    var43 = -0.08068247645796828
                else:
                    var43 = 0.1488884692225976
            else:
                if input[23] <= -2.6650000810623165:
                    var43 = 0.15657202572404566
                else:
                    var43 = 0.3675595604429497
        else:
            if input[16] > 4.500000000000001:
                if input[0] > 472.48950195312506:
                    var43 = 0.08046099327096891
                else:
                    var43 = -0.7119944374952742
            else:
                if input[590] > 0.000000000000000000000000000000000010000000180025095:
                    if input[26] > 5.356791973114015:
                        var43 = 0.12455825823698403
                    else:
                        var43 = -0.21199013172690548
                else:
                    if input[334] > 0.000000000000000000000000000000000010000000180025095:
                        var43 = -0.27576015612696253
                    else:
                        var43 = -0.00317825616239116
    if input[1] > 1.6548900008201601:
        if input[1628] > 0.000000000000000000000000000000000010000000180025095:
            var44 = -0.30349336947043115
        else:
            if input[1980] > 0.000000000000000000000000000000000010000000180025095:
                if input[1] > 3.6746098995208745:
                    if input[1884] > 0.000000000000000000000000000000000010000000180025095:
                        var44 = 0.13465286181547492
                    else:
                        var44 = -0.06916475103929709
                else:
                    var44 = -0.4679820724369324
            else:
                if input[1115] > 0.000000000000000000000000000000000010000000180025095:
                    var44 = 0.31088092269846557
                else:
                    if input[1869] > 0.000000000000000000000000000000000010000000180025095:
                        var44 = -0.09587649587893132
                    else:
                        var44 = 0.05408283956890791
    else:
        if input[4] > 81.65999984741212:
            if input[4] > 112.62500000000001:
                if input[1143] > 0.000000000000000000000000000000000010000000180025095:
                    var44 = 0.03445602689666309
                else:
                    var44 = -0.45200808969969597
            else:
                var44 = 0.13902247603926415
        else:
            var44 = -0.5571184444863139
    if input[1] > 2.5054000616073613:
        if input[16] > 4.500000000000001:
            var45 = -0.28259808628326394
        else:
            if input[704] > 0.000000000000000000000000000000000010000000180025095:
                if input[0] > 479.468490600586:
                    var45 = -0.032057254937674494
                else:
                    if input[1564] > 0.000000000000000000000000000000000010000000180025095:
                        var45 = 0.08534764822392044
                    else:
                        var45 = 0.24104652769513943
            else:
                if input[20] <= -0.30866177380084986:
                    if input[1265] > 0.000000000000000000000000000000000010000000180025095:
                        var45 = -0.10141279740490466
                    else:
                        var45 = 0.05174138944393941
                else:
                    var45 = -0.4558583930770368
    else:
        if input[4] > 92.56999969482423:
            if input[6] > 0.21132376790046695:
                if input[6] > 0.4564394056797028:
                    if input[1] > 1.2640799880027773:
                        var45 = 0.2865924865452211
                    else:
                        var45 = -0.03733288120867601
                else:
                    if input[16] > 2.5000000000000004:
                        var45 = -0.03007808270341904
                    else:
                        var45 = -0.4039203752357116
            else:
                var45 = 0.23622366162552233
        else:
            if input[6] > 0.3726851791143418:
                if input[1048] > 0.000000000000000000000000000000000010000000180025095:
                    var45 = -0.2600924073185167
                else:
                    var45 = -0.7625056136247799
            else:
                if input[20] <= -0.36949113011360163:
                    if input[18] > 113.00000000000001:
                        var45 = -0.06986861819828742
                    else:
                        var45 = 0.2659743661207777
                else:
                    var45 = -0.3366316625351308
    if input[1] > 3.0360499620437627:
        if input[704] > 0.000000000000000000000000000000000010000000180025095:
            if input[20] <= -0.3538318127393722:
                if input[19] > 0.24832247942686084:
                    if input[23] <= -2.245000004768371:
                        var46 = 0.13086697143797157
                    else:
                        var46 = 0.23544230662768162
                else:
                    var46 = -0.005946475481132112
            else:
                var46 = 0.30578563322583996
        else:
            if input[20] <= -0.30866177380084986:
                if input[236] > 0.000000000000000000000000000000000010000000180025095:
                    var46 = -0.14151159736049146
                else:
                    if input[1980] > 0.000000000000000000000000000000000010000000180025095:
                        var46 = -0.08740380225752521
                    else:
                        var46 = 0.07086681525016834
            else:
                var46 = -0.40570818642478673
    else:
        if input[910] > 0.000000000000000000000000000000000010000000180025095:
            if input[7] > 3.5000000000000004:
                var46 = -0.073356116147925
            else:
                var46 = -0.6387281293892741
        else:
            if input[19] > 0.1579108238220215:
                if input[1628] > 0.000000000000000000000000000000000010000000180025095:
                    var46 = -0.38833871345238496
                else:
                    if input[2038] > 0.000000000000000000000000000000000010000000180025095:
                        var46 = -0.3504330009580478
                    else:
                        var46 = 0.01806796112117714
            else:
                var46 = -0.46440461180103365
    if input[1] > 1.6548900008201601:
        if input[1628] > 0.000000000000000000000000000000000010000000180025095:
            var47 = -0.2824410632995796
        else:
            if input[8] > 12.500000000000002:
                var47 = 0.2787689854725745
            else:
                if input[1869] > 0.000000000000000000000000000000000010000000180025095:
                    if input[20] <= -0.35853596031665796:
                        var47 = -0.018822655495130798
                    else:
                        var47 = -0.4925928901722081
                else:
                    if input[2] > 3.5000000000000004:
                        var47 = -0.2371776662346494
                    else:
                        var47 = 0.04848292585031275
    else:
        if input[10] > 0.000000000000000000000000000000000010000000180025095:
            if input[1] > 0.6833700239658357:
                if input[19] > 0.2641595900058747:
                    var47 = -0.015194853369692033
                else:
                    var47 = -0.33939743160636504
            else:
                var47 = 0.2504024799966134
        else:
            if input[4] > 95.70499801635744:
                var47 = -0.21957998928687386
            else:
                var47 = -0.7184452379520851
    if input[1] > 3.1613600254058842:
        if input[704] > 0.000000000000000000000000000000000010000000180025095:
            if input[20] <= -0.3538318127393722:
                if input[27] > 4.957150697708131:
                    var48 = 0.05238388957570514
                else:
                    if input[191] > 0.000000000000000000000000000000000010000000180025095:
                        var48 = 0.12255633459676563
                    else:
                        var48 = 0.22078861091127916
            else:
                var48 = 0.28922061549714834
        else:
            if input[20] <= -0.31365868449211115:
                if input[23] <= -1.9850000143051145:
                    if input[23] <= -2.43500006198883:
                        var48 = 0.06167174138475691
                    else:
                        var48 = -0.15426036592792064
                else:
                    if input[23] <= -1.7949999570846555:
                        var48 = 0.3064523380834938
                    else:
                        var48 = 0.07185376627872957
            else:
                var48 = -0.27918340798868124
    else:
        if input[334] > 0.000000000000000000000000000000000010000000180025095:
            if input[21] > 1.822146773338318:
                var48 = -0.05410697454780475
            else:
                var48 = -0.6725171831663493
        else:
            if input[635] > 0.000000000000000000000000000000000010000000180025095:
                var48 = -0.4269821657891914
            else:
                if input[602] > 0.000000000000000000000000000000000010000000180025095:
                    if input[25] > 23.42408657073975:
                        var48 = -0.014882674788553003
                    else:
                        var48 = -0.5963220490319696
                else:
                    if input[961] > 0.000000000000000000000000000000000010000000180025095:
                        var48 = -0.38861800358008547
                    else:
                        var48 = 0.02955398313547902
    if input[652] > 0.000000000000000000000000000000000010000000180025095:
        var49 = -0.4106819737267185
    else:
        if input[1] > 3.442409992218018:
            if input[704] > 0.000000000000000000000000000000000010000000180025095:
                if input[27] > 4.957150697708131:
                    var49 = 0.06052840624459728
                else:
                    if input[23] <= -2.1750000715255733:
                        var49 = 0.16928228776563298
                    else:
                        var49 = 0.28541265826913254
            else:
                if input[2] > 0.000000000000000000000000000000000010000000180025095:
                    if input[236] > 0.000000000000000000000000000000000010000000180025095:
                        var49 = -0.14848201241483333
                    else:
                        var49 = 0.07105155405595112
                else:
                    if input[1] > 4.6749000549316415:
                        var49 = 0.17845157031044068
                    else:
                        var49 = -0.29944576514870164
        else:
            if input[1192] > 0.000000000000000000000000000000000010000000180025095:
                var49 = -0.3937253578463271
            else:
                if input[1628] > 0.000000000000000000000000000000000010000000180025095:
                    var49 = -0.35938634724961116
                else:
                    if input[2038] > 0.000000000000000000000000000000000010000000180025095:
                        var49 = -0.27716526783755063
                    else:
                        var49 = 0.011526675508174017
    if input[1] > 1.6548900008201601:
        if input[1628] > 0.000000000000000000000000000000000010000000180025095:
            var50 = -0.26001217188093606
        else:
            if input[891] > 0.000000000000000000000000000000000010000000180025095:
                var50 = 0.297763399576349
            else:
                if input[1869] > 0.000000000000000000000000000000000010000000180025095:
                    if input[1] > 3.3635500669479375:
                        var50 = 0.06476738308521156
                    else:
                        var50 = -0.36887660506294995
                else:
                    if input[2] > 3.5000000000000004:
                        var50 = -0.17921688482165338
                    else:
                        var50 = 0.04509610062496988
    else:
        if input[10] > 0.000000000000000000000000000000000010000000180025095:
            if input[6] > 0.4564394056797028:
                var50 = 0.16417992745740262
            else:
                var50 = -0.19523560784933136
        else:
            if input[4] > 95.70499801635744:
                var50 = -0.19756475358706788
            else:
                var50 = -0.6780095643665067
    if input[652] > 0.000000000000000000000000000000000010000000180025095:
        var51 = -0.39117407391081643
    else:
        if input[1] > 3.967700004577637:
            if input[1783] > 0.000000000000000000000000000000000010000000180025095:
                if input[23] <= -2.5349999666213985:
                    if input[4] > 61.44999885559083:
                        var51 = 0.059703306194461514
                    else:
                        var51 = 0.1770845806420739
                else:
                    var51 = -0.3476953503500913
            else:
                if input[477] > 0.000000000000000000000000000000000010000000180025095:
                    var51 = -0.08835126744894795
                else:
                    if input[4] > 42.00000000000001:
                        var51 = 0.0935261482142873
                    else:
                        var51 = 0.3302179909787377
        else:
            if input[4] > 32.50499916076661:
                if input[681] > 0.000000000000000000000000000000000010000000180025095:
                    var51 = -0.4289502501358718
                else:
                    if input[286] > 0.000000000000000000000000000000000010000000180025095:
                        var51 = -0.35599527586978746
                    else:
                        var51 = 0.012642639552614533
            else:
                var51 = -0.43646958683689585
    if input[1] > 1.6548900008201601:
        if input[6] > 0.4031250029802323:
            if input[1] > 2.4862699508666997:
                if input[19] > 0.3362398445606232:
                    if input[27] > 5.539415121078492:
                        var52 = 0.05395236763349625
                    else:
                        var52 = 0.3436727167552964
